encog,BasicNetwork,java,3.4.0,1,1543368568993
[BASIC]
[BASIC:PARAMS]
[BASIC:NETWORK]
beginTraining=0
connectionLimit=0
contextTargetOffset=0,0,0
contextTargetSize=0,0,0
endTraining=2
hasContext=f
inputCount=8
layerCounts=5,11,9
layerFeedCounts=5,10,8
layerContextCount=0,0,0
layerIndex=0,5,16
output=0.9722570622,0.0948381683,0.0669218966,0.0210290195,0.0000895706,0.9988193589,0.970061945,0.0077506876,0.8094751776,0.0136124284,0.0921691203,0.3977426599,0.0175892936,0.9812372325,0.2128716389,1,1,0,0,0,0,1,1,1,1
outputCount=5
weightIndex=0,55,145
weights=0.6117793863,1.29194831,-1.2350544408,3.6716293526,-1.2563391059,-1.6507895642,1.0543544495,-1.8673728681,-0.5833241061,-2.8788653154,-0.3022625776,0.8801993811,0.205377534,-0.7684387309,-1.5303306291,-3.2408400401,3.0257688994,-0.78586967,-3.3131542476,-2.2741384153,0.8868755569,0.0891514872,1.0004745458,-1.6867795876,-1.2419725371,-1.7251442923,1.0390863499,-2.1949530697,-1.6815184867,0.7097398099,2.0412945569,-3.5199455126,-1.0010951582,-0.8710188,-0.06490224,3.7763594946,-2.2873572679,0.6945065155,-1.2210003631,2.4441463078,-2.3163395126,-0.1776138045,0.4473567582,-1.8346216128,-3.7276353607,-3.1063418812,0.2195111228,-0.1947928256,1.4958552429,0.3654065622,-1.1782240157,1.9022464868,-2.8532970997,1.1079804992,0.517196736,1.1369522895,-2.4478325156,0.1987812023,-0.5551376874,-0.349172727,0.9836510466,3.5473833493,0.8137577127,0.2587719562,0.6190839267,-3.1563580717,-0.1096430917,-1.100547469,-0.1181162498,1.1379105244,1.0256384717,-0.1857916441,0.8813882384,-1.1895143554,-1.8170044604,2.9609719245,-0.2675361495,-1.1681272928,0.9927679525,-2.9614802105,-0.4722699645,-1.2216962573,2.2411434993,-0.9199518744,-2.1481303476,-2.9754704606,1.2923128446,-1.252712236,0.5611477838,-0.5044432289,0.4014678029,-1.1473209394,2.6558626415,2.934372548,0.0448573082,1.0594002412,-1.5251252028,-1.2099020557,0.2156202759,-0.6163382023,-0.864189013,-0.8855404876,-2.2289686076,3.2786557359,0.8701853511,1.2865195784,-1.5056989869,-1.2714384795,0.0673739496,0.2576988192,-2.8556214062,0.9983008438,-1.7487660632,-1.3273882113,0.1882750733,-1.6710963165,-0.0585752527,0.8688180603,-0.462791202,3.9687045922,1.1465326401,0.9571575905,1.6268199014,-1.3084824576,-0.1795088511,-0.3731688282,-1.6987677161,0.832192904,-0.0747240342,2.0815272261,-1.1878544105,-1.6969856258,0.6203462497,3.0199674128,0.726077433,-1.2416441958,-0.3328411781,0.1953673208,0.2325440663,2.1357992094,-1.6798569283,2.0106689893,-3.854865504,0.3309430803,0.5383926257
biasActivation=0,1,1
[BASIC:ACTIVATION]
"org.encog.engine.network.activation.ActivationSigmoid"
"org.encog.engine.network.activation.ActivationSigmoid"
"org.encog.engine.network.activation.ActivationLinear"
