encog,BasicNetwork,java,3.4.0,1,1543370508030
[BASIC]
[BASIC:PARAMS]
[BASIC:NETWORK]
beginTraining=0
connectionLimit=0
contextTargetOffset=0,0,0
contextTargetSize=0,0,0
endTraining=2
hasContext=f
inputCount=8
layerCounts=5,6,9
layerFeedCounts=5,5,8
layerContextCount=0,0,0
layerIndex=0,5,11
output=0.0162073615,0.0000000016,0.0246531152,0.9910684179,0.0026512164,0.9373342615,0.8823866802,0.9972787123,0.1017104698,0.0027394344,1,0,0,1,0,0,0,0,1,1
outputCount=5
weightIndex=0,30,75
weights=0.8689456728,-3.3476924873,-5.3222199811,-8.8813846421,-0.2668746132,4.2453146996,-8.4752401352,-1.7118067141,-8.1103993627,8.5174911171,-3.432672245,-3.5397684199,-5.5659369173,-2.6978380407,8.1449123738,0.4657050443,-4.7407661312,-4.2373379782,4.4896093733,6.6550581916,-0.475642124,-0.9104508012,-4.5730698545,-4.7919315932,4.080029764,-3.310298572,0.9464438844,2.4467155313,8.1353142085,-8.0484813937,-4.2153141318,1.2002453456,4.3056508652,0.4063246095,1.465145864,-2.060517685,-7.6384577663,-0.325373085,-1.275052688,-2.5311339996,-4.2994534697,4.7794741728,-0.5884338932,-4.2327205577,2.6005970091,-1.9644331774,-1.0604809638,-1.7037651291,-1.5950853383,8.042089791,10.2782018331,-1.5786161898,-5.3748334992,-8.2760887914,7.9528498254,-0.4351647896,-3.9391119588,-4.2500394886,7.3892500897,0.4400849262,9.5109936142,0.5909095849,3.9279739223,-5.6908702132,-0.2275355808,-2.3909115328,0.0828764233,6.0113534882,-2.4935831089,2.0357971513,2.4108862705,-2.9306086046,-7.5288597226,-0.0772502463,-3.3264272395
biasActivation=0,1,1
[BASIC:ACTIVATION]
"org.encog.engine.network.activation.ActivationSigmoid"
"org.encog.engine.network.activation.ActivationSigmoid"
"org.encog.engine.network.activation.ActivationLinear"
