encog,BasicNetwork,java,3.4.0,1,1543375302403
[BASIC]
[BASIC:PARAMS]
[BASIC:NETWORK]
beginTraining=0
connectionLimit=0
contextTargetOffset=0,0,0
contextTargetSize=0,0,0
endTraining=2
hasContext=f
inputCount=8
layerCounts=5,11,9
layerFeedCounts=5,10,8
layerContextCount=0,0,0
layerIndex=0,5,16
output=0.0007986736,0.4810222594,0.0064826442,0.6166677811,0.0543093107,0.0947812524,0.654915238,0.0503914158,0.9928403578,0.5549019287,0.0224633756,0.7316018374,0.0450540741,0.4557508291,0.9703235137,1,0,0,1,1,0,1,0,1,1
outputCount=5
weightIndex=0,55,145
weights=1.4201954343,-0.8222728286,1.7979346171,-1.2068815901,-3.3563576993,1.269959551,-2.9205350348,1.5512741296,1.0370289587,-2.2002568527,-0.057174306,-2.0883995203,-1.6629903371,-2.5743418289,2.7342986211,-1.9177108461,-1.1847162109,0.1400604434,-0.6263595238,1.5732017785,-0.3415573797,-0.7429470193,1.1800838735,-1.452644419,1.6679294657,-3.6397232257,1.6185477972,-2.9398830924,-0.1982865407,0.3911468074,-2.2241675217,0.6131127577,-0.9489022096,-0.0573529068,1.7765427947,-1.0013175378,1.2529704959,-0.9736963872,-0.3317629005,-3.4107412405,-1.1937157944,-2.0642530259,2.6951699991,-0.4537193819,-1.8034844331,-0.5269888327,-3.6637114382,-2.4831337956,2.427417512,2.7596337768,0.1169329693,-0.2652391502,-0.2636995398,-0.4062268086,-0.6593901979,1.0036528479,-0.0011089045,0.5084838604,-2.1808985466,-0.1900307899,0.1286206069,2.7163612513,-0.4604298087,-0.2523811068,-0.9302035277,-1.1090420424,1.7220128769,-1.3568275488,-1.4338178518,0.8452082373,-0.9591921659,-0.0588380881,-0.5108397313,0.8218748985,-1.4637596333,0.4767485255,-2.6863080213,0.5621670855,-0.8384749354,4.163851193,0.6490732958,-0.5372679092,0.7438282736,-3.4343885163,0.4853315426,0.607764534,-2.3242118202,2.9055542992,-2.0271161619,-0.1437979193,1.0772574186,-1.8770206689,4.238220696,1.3237498211,1.2367135337,0.2682413366,-0.7656560096,0.0800616918,-0.181578432,-1.3927321631,-0.0756303721,1.5351492991,-1.0344943323,-0.9655009262,0.8027856849,-2.1927881372,-3.3472305224,-0.6135962497,1.0332301191,0.2137882479,3.1755739582,-0.3153916579,2.6900853566,0.4416552285,-0.1919497551,0.7207465673,-0.5412786011,-0.6387004735,0.1816723494,-0.3167648263,-1.6963517637,-1.2270560136,-0.7077335151,-0.1744525892,1.219388557,0.7642385748,-0.7201695106,0.7343603711,-1.5518251745,-2.7735441077,1.5129501847,0.8613568032,0.4784129679,-0.6933167895,0.1886809322,0.4160390789,-0.8374234896,-0.3242119815,3.7338712758,0.658822399,-0.8039633556,0.1633141024,-1.0544156879,0.0883367119,-1.1570699803
biasActivation=0,1,1
[BASIC:ACTIVATION]
"org.encog.engine.network.activation.ActivationSigmoid"
"org.encog.engine.network.activation.ActivationSigmoid"
"org.encog.engine.network.activation.ActivationLinear"
