encog,BasicNetwork,java,3.4.0,1,1543375674668
[BASIC]
[BASIC:PARAMS]
[BASIC:NETWORK]
beginTraining=0
connectionLimit=0
contextTargetOffset=0,0,0
contextTargetSize=0,0,0
endTraining=2
hasContext=f
inputCount=8
layerCounts=5,11,9
layerFeedCounts=5,10,8
layerContextCount=0,0,0
layerIndex=0,5,16
output=0.0029724825,0.1266608959,0.036949752,0.0162848157,0.9353922805,0.6829141173,0.5045220807,0.0201499791,0.0578541633,0.3705304578,0.9794867979,0.0620043512,0.287786065,0.2649715867,0.9940886896,1,0,1,0,1,0,0,0,1,1
outputCount=5
weightIndex=0,55,145
weights=-0.3375934143,0.3177488971,2.2749873324,-0.1828252754,-1.6510444642,-0.7529502579,2.2539337183,0.7191078075,0.6423897951,-3.8994447666,-1.071665597,-2.9750154042,1.7097485603,-1.5253763574,0.9572424288,-0.7055523435,1.9974799956,-1.3359823473,0.0680001368,0.400985772,-1.2774125911,-1.2545784043,0.0253530733,-3.7455804735,0.2890345557,-1.8890415978,0.3835380436,-3.1115061861,0.6269201583,0.6203688174,0.3389680934,1.9552414936,-0.6300066316,-0.3848350877,1.9349213427,-0.5506423282,2.2554094181,1.6939558143,-3.1623375265,-0.4192314839,-2.0522218328,-2.4015406489,-0.2147543494,-0.9976683432,-0.0710059219,-0.4114702087,-1.9756200718,-2.4924529473,-0.9224875753,2.5538796163,0.1502075453,-1.1479434332,-2.8667329379,2.230008265,-0.1831299133,-0.2932502942,1.4120355344,1.6415086545,-1.3100419896,0.6204691289,-1.3383808757,0.3598023621,0.9039065603,-0.2387036571,-0.7250809649,-2.4044342245,-0.0200546537,0.4220202954,0.0941150438,1.6731093754,-2.9295840357,-0.169277737,2.1697804822,0.4836087917,-1.472537164,-0.0319515611,-2.6099104236,0.1536091876,-0.7326927518,2.2473497675,0.0197426629,0.1785086554,0.9753142036,-3.5102918969,0.9375180149,-0.1570923352,-1.7105491161,1.6314477832,-1.0630170764,0.0148726417,0.8622769303,-0.8597442166,-0.0547087196,2.8422731603,0.179519914,-0.99205252,0.2879514986,-0.1959529655,0.2055712908,-0.8603243045,0.2005879325,1.6707283712,-3.2177318671,1.785749717,1.1748423004,0.150391129,-3.0125272921,-0.7974483767,1.2069303622,0.360995441,-0.8026076531,-0.134568047,-2.3495408802,0.5003447825,-1.6407451553,1.2033746211,0.3561208339,0.0794869523,1.753539966,-0.5016466429,-0.4543916195,0.0665108295,0.6495634085,-0.8566805369,2.2210154297,0.0378746234,-0.5088997725,0.9378954115,-1.2753898251,-1.2414895014,0.1238844851,0.3020604241,0.3822518362,3.381820934,0.6432603918,-0.5120416078,-1.2500313062,4.2611047454,1.7310775784,2.1192832978,-0.1700929481,-0.1119144008,-0.4948341118,-0.1864112166,-1.0690179373
biasActivation=0,1,1
[BASIC:ACTIVATION]
"org.encog.engine.network.activation.ActivationSigmoid"
"org.encog.engine.network.activation.ActivationSigmoid"
"org.encog.engine.network.activation.ActivationLinear"
