encog,BasicNetwork,java,3.4.0,1,1543373726821
[BASIC]
[BASIC:PARAMS]
[BASIC:NETWORK]
beginTraining=0
connectionLimit=0
contextTargetOffset=0,0,0
contextTargetSize=0,0,0
endTraining=2
hasContext=f
inputCount=8
layerCounts=6,11,9
layerFeedCounts=6,10,8
layerContextCount=0,0,0
layerIndex=0,6,17
output=0.0020453243,0.0288585194,0.0771304046,0.0111645801,0.92952699,0.0073726085,0.2217404126,0.6776500202,0.98829985,0.4980098754,0.0199746739,0.9230541158,0.5293489027,0.8660395442,0.0310601858,0.8673640094,1,0,1,0,1,0,0,0,1,1
outputCount=6
weightIndex=0,66,156
weights=0.743193587,0.8904867311,-3.1847309387,-2.8699103589,1.9595495565,0.7608343976,-1.4203652892,-0.3966934139,1.7263582502,-2.0764166684,-0.2802967344,0.6668718356,-0.5733273954,2.5720051882,2.5387315664,0.8520696426,-1.5258168153,-2.8138335393,-1.0888757863,0.1304429833,-2.2542933938,-1.3065075245,-1.3921822123,-2.561847132,-2.1702128624,-1.7991935821,-1.371169677,1.9847171189,1.3164362604,-0.2124542468,-2.5332765042,0.6490242805,-0.1981435609,-0.6468340126,-0.4556366473,-1.6160008286,2.346725754,-0.3126819686,-3.6556967134,2.4288790118,-0.8402239409,1.4837306385,0.6828907319,-1.4189948871,-0.8138451949,2.739009664,3.4523736535,-0.4575405367,-3.2591775438,-0.0537086731,-0.5946404627,-0.5363940831,-1.3060503065,0.4828160069,-1.7645254777,-1.3400540489,-0.2818190352,-0.8884737429,-1.3542160808,0.302544678,-1.3039443395,-0.3416011653,-0.3097133459,-0.5626029538,-0.9374374922,-0.3847812642,1.2117906934,-1.7309245569,-1.3819709847,0.0558391053,0.382263504,0.7594264505,-0.1932825766,0.0515498568,0.3679828515,-1.0555836976,0.9619539098,-1.2000216661,-1.0205559899,1.2184208931,-1.2643207311,-3.0413451877,-0.3563080352,1.1579032265,0.4901719803,2.8426408442,-2.0013973085,2.2099802323,0.1459026857,1.7148688034,-4.3832504433,0.1951158135,-0.8113524053,-0.1842449707,-1.4874683545,0.7531906204,1.4126738199,-1.7644290595,2.5592676158,-4.2101653198,0.1262880307,-0.0594540367,1.8087138943,-3.3836840188,-0.8714866913,-1.5259685614,0.1141234637,1.1461358486,1.1337737751,0.720535767,0.2960035639,0.2585130244,2.3083262975,-1.6062200564,0.3505341113,0.590667884,-1.1755741547,3.6494441463,-0.2356523982,0.0613774805,-1.6786173116,1.229168881,3.4368422843,-1.0310905397,-1.5511799492,-0.506899993,0.1039732815,-0.28349067,0.202943045,0.3946622425,-0.5018477227,0.9842901998,0.6218570647,0.9272070824,-0.6234108825,0.6614797456,0.6219763479,1.1244002301,0.7847640654,-2.942445253,0.1265195151,-2.1532136456,-0.3551397816,0.7950766566,-1.3322653425,0.878050109,0.7773330912,-0.7977412409,2.4855413033,1.7054815823,-0.4677399981,-0.6057765287,0.0440966177,-0.4712596877,0.8907936522,-1.0307446828
biasActivation=0,1,1
[BASIC:ACTIVATION]
"org.encog.engine.network.activation.ActivationSigmoid"
"org.encog.engine.network.activation.ActivationSigmoid"
"org.encog.engine.network.activation.ActivationLinear"
