encog,BasicNetwork,java,3.4.0,1,1543375312080
[BASIC]
[BASIC:PARAMS]
[BASIC:NETWORK]
beginTraining=0
connectionLimit=0
contextTargetOffset=0,0,0
contextTargetSize=0,0,0
endTraining=2
hasContext=f
inputCount=9
layerCounts=5,11,10
layerFeedCounts=5,10,9
layerContextCount=0,0,0
layerIndex=0,5,16
output=0.8233755693,0.0620157805,0.0054496769,0.0207827078,0.0946211565,0.5220860123,0.1028565048,0.4694575562,0.0826242511,0.806842715,0.7516785664,0.1758142883,0.2852966495,0.7197069963,0.1378447878,1,0,0,0,0,1,0,0,1,0,1
outputCount=5
weightIndex=0,55,155
weights=1.3757808459,-2.5421762931,-0.1043410701,-2.778773473,0.9209654045,2.0035240971,-2.9955573248,-3.5041522634,0.0547434873,0.261965811,0.5629624724,-2.7238869209,2.841996283,-1.9022238646,-1.7598530347,-1.6885594194,1.8886443419,1.1691668648,-0.7030088639,-1.0646647491,-2.66050612,0.5226029115,0.6655140262,-3.1334413482,0.0925711106,1.3849917277,-2.6901012365,-2.3305321123,1.7383096894,-2.579251735,0.7586447124,1.14988917,-1.7417635436,0.1494567394,1.7945630832,0.9009209749,2.3442106335,0.1679403368,-0.4041039873,-2.7990433953,0.258595548,-3.5344887057,1.36707552,-1.789934592,-2.2631480774,-1.6433408827,1.7987779439,-1.3142909652,2.3580777133,-3.6272799452,1.5429663905,2.3683666516,-0.1423493538,-0.6840511002,-1.5700128507,0.3495474915,-0.9003182315,2.5320806553,-2.521495933,-0.7976370618,-1.0922940971,1.5053919259,0.9661713497,-0.4347450375,-0.0801327133,-0.2527848404,-2.0303552246,0.5247045112,0.9803747348,-2.3891570052,2.826186042,-3.9156972033,-0.2885240752,-0.2879201892,0.5118001178,-1.111303256,1.2665497876,1.4145225803,-0.4724900372,0.1351681604,-1.6115245691,-2.3835560496,-0.6105161609,-0.087895602,0.3530259311,-2.0195933792,1.36651093,3.7361865504,0.3205711448,-1.537352583,-0.5464470559,-0.1631429625,0.5316663314,-0.0144784858,-1.4015276617,-0.4509496159,0.2581217611,-0.3227060371,-0.6194791491,1.1450476307,-2.5744124456,-3.355303001,0.1434902095,0.9294687441,0.1410861027,1.7883515299,-3.8002629492,-1.5919172283,-1.1690121699,0.0297082322,1.6370370487,1.4261649954,0.4628691643,0.2768899227,0.6150073877,-0.2251918986,4.8140403508,-0.503056317,2.3502593557,-0.305964319,-0.4896332503,0.5453417175,-0.9544233275,-0.9072014609,-0.2845799784,-1.4037828104,1.4829951181,-0.0505878808,1.5525207671,-0.2687442813,1.5096922108,-3.9496359862,-0.8658799218,0.5804362589,0.2162861553,0.2973567019,2.2838261272,-1.0300648532,0.497882199,1.219290215,-0.807262951,2.8444990518,-0.2016291804,-0.0380653062,-0.0746523529,0.3507073958,-0.0047549102,3.1747618286,-1.8160291615,-1.8879183281,-0.0191456046,0.830149935,0.6207618584,-0.2939206778,-0.5661505194
biasActivation=0,1,1
[BASIC:ACTIVATION]
"org.encog.engine.network.activation.ActivationSigmoid"
"org.encog.engine.network.activation.ActivationSigmoid"
"org.encog.engine.network.activation.ActivationLinear"
